-0.5732891136196689 1.7637031462421011 0.0032869398657455 -0.9488108941520307 -0.1501898257134350 -0.2150582151782722 -0.2726371787471001 -0.0711192375896976 -1.1111536168124676 -0.3061924663348535
0.7949454433845465 -1.0399085812336115 -0.6312338709736728 -0.9815478178414202 0.1176862107914234 0.0925697683541791 -1.6226882134783087 -0.0015399870625676 -1.1353796197969090 0.5092253238191589
0.6338628061576196 -0.8755950788430176 1.0699208827723814 0.2678755874042154 -0.5702805415949299 -1.0570917509227646 -1.4532732175185927 0.4084151302838248 -0.2750386151193578 -1.2754288326825762
-1.5761667058061850 0.1877081059421628 -0.3523964293265640 0.3017769721950963 -0.7930703321993624 -0.3386394392939475 0.1935206161726644 -1.3691926871271176 0.3615305902491585 0.3415541694603012
0.3952866703726303 -1.1266365751598995 -0.5843402311947545 0.0533783667970442 -0.9122633594068391 1.0264722003982010 -0.1593737699781202 -0.7456194868598718 -0.0385822773879629 -0.5906066414597130
-1.1534499989134019 -0.4785180636875887 -1.4077392861653484 -0.9239406002277033 0.8544006551964957 -1.8546815236760885 1.4518812155475749 0.5950993024369468 -1.7639694903263385 1.1711380148703492
0.6386428493266075 -1.0558458036401883 -0.5467248770137366 -0.2434785390292589 -1.9309352083856768 0.2761312291143747 -1.0531717377650334 0.3962911597693234 -1.1199501067571060 1.7452028409346927
-1.4131786740577104 0.2154307485768934 -0.7655347420307663 0.8181325952016030 1.2043360570669164 -0.1053361356601828 -1.2634613669721568 -0.8651981771131056 0.2771596814731345 -0.0645994028405779
0.0270516638918013 -0.1247470787509844 -1.8163312044964544 0.2901080892212560 -0.0602251083164743 0.1541245491505577 -0.0713885300957044 0.2748356008221179 -1.0905143953619842 -1.1203861540801754
-0.6179887368373884 -0.2186020345352352 0.0013357455342947 -0.6658654416900152 1.2594786894747498 -0.4002356933932337 -0.1778055025340774 1.4235577633891980 -1.1487276874009584 -1.6690425824008073
0.4069704598169959 -0.2779181714728467 -0.9440187147088586 -1.0422366674133443 -0.6590531631532499 1.1546924009713986 -0.5716627928487810 1.1579143716066620 -1.7550126026401969 -0.7499023551595593
0.3086069842313888 -0.0282542320693116 -0.2426326919540705 -0.0119517250478860 -1.5373494438847266 -1.4960030920072382 0.9359011033882073 -1.0327298345600184 0.3707933988769067 -0.6519714234547852
-1.7042593525742782 -0.1940673689342981 -1.1607349694798990 -0.5229929460174380 0.2995973014828285 0.9577075304735736 -0.6669852821044416 0.3584334391758242 0.3779917226073245 -0.3742346327467675
0.3258335355086538 -0.7225222510350827 -1.2064993605758747 0.6933324730261476 0.6955558949671669 -0.4584787902438275 -1.0774308771481811 -2.0276901753785790 -0.0405764889979407 0.8360816311191657
-0.1621853032616677 -1.5548187195848175 0.3061230925623190 -0.4505347836109619 -0.7649721413165195 -1.2215623540995844 -0.6938534834496989 -0.1391418193816217 0.3650904611072216 -0.7408855334987539
0.5472061568359831 -1.3100229808214152 0.1747489955407173 -1.4023399659285780 -0.5692805956647851 -0.6098228089252584 -0.4359439115525771 0.3361546628423720 0.0698974662664099 -0.4825657772098733
-1.1182408248510363 0.3689471840118708 0.7877726405983607 -1.2550692918946726 0.9183353638990591 -0.0435580487075037 0.7694275334347231 -0.4563320985446400 -1.2197389764759397 -1.2944207000219778
0.0219808380379052 0.3822710924608957 -0.1223692891023585 0.1105125354886299 -1.5005955305468854 -0.5431621027101018 -0.1187661505290298 -0.8925792145272611 0.7502959032466796 -1.2864089193940333
-0.9039151033104271 -0.2990666744665011 -0.7613253105547078 -0.6985344359813604 0.8096100441780366 -0.7515896834711694 1.5173822650221456 -0.9783599672762293 -1.5340686107829500 1.2247095749239756
-0.1616193135200207 -0.3783066912679745 -0.5652904066736286 -1.2051049124507827 0.3763309191485668 0.6664085585249718 0.3196489980247210 -0.4141937261021905 -0.4924667588941058 -1.1545226073109931
-0.7402011027261460 1.1694554326480877 -1.0283668322726061 -1.0805334110386247 -0.2170880453628687 -0.3369493588854575 -0.1610944976564337 1.0362768471516295 -1.1330951265130631 -0.3432936160823893
-0.3704354874880287 1.3008338211531121 -1.0142056281468561 -0.3183683873892461 -0.1662884987971355 1.0110113220149426 -0.2802102601301902 -0.0219554129287442 -1.1945106907930234 -0.0002479459818003
-0.9956082849737022 0.2018370840600381 0.8207926679693444 0.8278733680387267 -0.6429090006555322 -1.9641434134091134 -1.2700859282444070 -0.2344780532617189 -0.8022530906649161 0.6506997994504795
-0.0471373160225210 -0.6245393613263268 0.1297930900004343 -0.9736827132514984 0.5337263324725506 -0.1389045733033506 -0.2791937251540328 -1.1980495155752529 0.5051997936142526 -0.8757699392750961
0.2410540081419245 -0.0253884095868456 -0.3129423727009265 0.0853652991691096 -1.8186546895701057 0.4355521741689209 0.4627170376265808 -1.4808046169183624 1.0342857599761923 -1.3010336561102696
0.5713891441030631 -0.9944314392204159 0.8546032378175888 -0.7970633231901050 0.7804795605939892 -0.4228243137684745 0.4097418564944824 -0.6243614201287421 -1.2485171559801274 -1.2042862204333276
0.7391961336216624 -1.2435362161484391 0.5236772071836582 -2.1509274448678757 -0.7997758169254411 -1.9652578023115495 0.3518631954887544 0.8047372043997931 0.7660516335909722 -0.5898025609918555
-1.1275053452914352 1.0815062145818779 1.1911329086992430 0.0009544496861951 -0.3976461010517552 0.1718254422511573 -1.0555372491160551 0.0451801900684526 -1.7336499893673807 -0.6163594651505788
-1.1923836209818439 -0.0301528253201288 -0.4740659474924191 -0.7896575777973792 -0.1175361817169380 0.8900925023398526 -1.6318109944263046 -0.0251611140667036 1.0503494707292658 -0.1961555171203946
-0.9938191474691349 0.8873604560287716 -1.8116862248240293 0.0069006789638872 -1.9138239819867695 0.1157703994123127 -1.0330105614229854 0.7457794532918998 -0.2896752154186350 1.0757277574492334
-1.0600259320822187 0.5501892366029800 -0.0975435651884000 -0.5799355553026752 -0.9642288472494780 -1.3875598338677644 -0.8251753602024707 0.1284453006524125 1.1411629805405059 0.9631380631668980
0.1397924732737604 -0.9547215001211100 1.3839789179370083 -1.9074291563831778 0.1068386776402022 0.1177245143192643 0.0830499521067070 -0.8791964644256064 -0.9346722719678090 0.5463953410819884
-1.0962775847107640 -0.7585395360185814 1.0072822469784668 0.9715980776830142 0.4072879945223438 -1.1306356203306942 -1.4120977394558569 -0.4816187788381334 0.2697307336255371 -0.1079186101141542
-1.7959498370204887 0.7348617760808015 -0.1138222369793483 0.8106499583130420 -1.4614091879228996 0.1576239455165339 1.1763629376158480 -0.4498544384868185 -0.8836405488906302 -0.5779468686270974
-0.0160670097716794 -0.9584496309694291 -1.1120635244836241 0.6972904568961464 0.9887026798813989 0.3368073005475166 -0.9999437238838947 0.2822746914997383 -0.6729020980889231 -1.3711807739534621
-0.9329237166192140 0.8977072777142721 -0.2442964169429604 -0.6673032154668878 -0.6443430795114830 0.8186480412853354 -0.5404010299867367 1.4863584055982517 -0.5014273312653350 -2.0590517063729243
0.4879171376119322 -1.1730436208145432 0.9096737913027559 0.5926736404553493 -0.8359326888665678 -0.2009988705280689 -0.6762052431302941 0.4036030835704525 -2.1368937695513082 -1.5367973087992144
0.6550647640888877 -1.1164791062216748 -1.7277686587495562 0.7433625464330982 -0.3744260180037716 -0.8955805650353711 -0.0920081563419014 -0.1139807123341457 -0.8860071885345555 0.3749518154553485
-1.1567453928569071 0.5066096689155358 -0.6933286517707172 0.1518568814544254 -0.7549757805773691 1.8352725645346850 0.4745364107419854 -0.6689717124024127 -1.5639819102896946 -0.3453598732009825
-0.9107339131296854 0.0046615977176842 -0.9336152069867623 -1.9228416657075156 0.3472876389252552 1.2227224908138412 0.3517645955276849 -1.3601477468414989 0.8923914057000131 0.1806763503105613
